%YAML:1.0
opencv_ml_em:
   format: 3
   training_params:
      nclusters: 4
      cov_mat_type: diagonal
      epsilon: 1.0000000000000000e-02
      iterations: 3000
   weights: !!opencv-matrix
      rows: 1
      cols: 4
      dt: d
      data: [ 3.8186958193891685e-01, 1.0703190069803063e-01,
          2.8430840520278955e-01, 2.2679011216025988e-01 ]
   means: !!opencv-matrix
      rows: 4
      cols: 3
      dt: d
      data: [ 9.6238927343835783e+01, 1.9547595135197039e+02,
          9.3002372289515492e+01, 1.9067555030818531e+02,
          4.6137619567297193e+01, 1.5785869742563116e+02,
          1.8483472671324867e+02, 1.6514926912823671e+02,
          5.7607455172803938e+01, 1.3712115933395549e+02,
          6.8861722352552690e+01, 1.6426744013570590e+02 ]
   covs:
      - !!opencv-matrix
         rows: 3
         cols: 3
         dt: d
         data: [ 9.3043351074397833e+02, 0., 0., 0.,
             7.2036197872078014e+02, 0., 0., 0., 2.1207503255517298e+02 ]
      - !!opencv-matrix
         rows: 3
         cols: 3
         dt: d
         data: [ 4.4185728505874914e+02, 0., 0., 0.,
             1.7228743729743914e+02, 0., 0., 0., 3.3335647775394655e+01 ]
      - !!opencv-matrix
         rows: 3
         cols: 3
         dt: d
         data: [ 8.4284224364817362e+02, 0., 0., 0.,
             2.6781774498624486e+02, 0., 0., 0., 3.5974679342854222e+02 ]
      - !!opencv-matrix
         rows: 3
         cols: 3
         dt: d
         data: [ 1.9766015799280981e+03, 0., 0., 0.,
             3.0311419283528278e+02, 0., 0., 0., 2.0021727800402084e+02 ]
